5 200
</s> 0.000950 0.001060 0.000093 0.002327 -0.002156 -0.002126 -0.001007 -0.001417 0.001929 -0.002170 -0.000289 -0.002463 -0.001632 -0.001899 -0.001504 -0.002001 -0.001998 -0.001039 -0.000993 0.001124 0.000451 -0.000666 -0.000396 -0.001150 -0.000575 0.002028 -0.001278 0.000454 -0.001700 0.001921 0.001049 -0.000267 -0.001357 -0.002446 -0.001994 0.002343 -0.000038 -0.000065 -0.002145 0.001631 0.002374 -0.000250 0.002130 0.001527 -0.001288 0.000567 0.000218 0.000968 -0.000909 -0.002478 -0.000314 -0.001946 -0.000910 0.001204 -0.002215 -0.000388 -0.002413 0.001431 -0.002040 0.000937 -0.002437 -0.002095 0.000428 0.000199 0.002044 0.000525 -0.000447 0.000481 0.002084 0.001718 -0.001270 -0.001730 -0.002251 -0.002209 -0.000780 -0.001466 0.001201 -0.001601 0.001845 -0.000743 0.000054 0.002166 0.000233 -0.001158 0.000908 0.002038 -0.002371 0.001406 -0.001828 0.002165 -0.000298 -0.001836 -0.002442 0.002031 -0.001755 0.001654 0.001912 0.002010 -0.002409 -0.000366 0.001005 0.000560 0.000848 -0.000482 -0.001144 -0.000568 -0.001788 -0.000246 -0.002142 -0.000282 -0.001639 0.001288 0.001780 -0.001965 0.000413 -0.001879 -0.000628 -0.001772 0.000071 -0.001860 -0.001731 -0.000400 0.002236 -0.002222 0.000688 -0.000329 0.001223 -0.000621 0.001381 -0.002385 -0.001780 -0.000925 -0.000082 0.000772 0.000532 0.000741 0.002115 -0.000146 -0.001406 0.000346 0.001755 -0.001791 0.001294 -0.000767 -0.001803 0.000667 -0.002004 0.000294 -0.002146 -0.002432 -0.001724 -0.000450 -0.000329 -0.001676 0.001819 -0.000611 -0.001903 -0.002454 -0.001334 -0.001694 0.000569 0.000352 -0.000644 0.001629 0.001642 0.001190 -0.002080 -0.001071 0.000021 -0.001580 0.000099 -0.002053 -0.002493 -0.002200 0.000111 0.001201 0.001669 -0.000008 -0.001855 -0.001229 -0.001702 0.001215 0.000299 0.000695 -0.001326 0.001650 -0.002222 -0.000960 -0.002182 0.000836 0.000019 0.001658 0.001521 -0.001013 -0.000071 -0.001470 0.001021 -0.000498 0.002104 0.000267 
the -0.131245 0.007842 0.000245 0.047854 0.095819 0.026673 0.025605 -0.001873 0.050117 0.040890 0.008437 -0.077630 0.007673 -0.033175 0.054989 0.081986 -0.067874 0.028186 -0.044741 -0.032985 -0.007635 0.094690 0.127190 0.154122 0.101039 -0.093212 -0.035721 0.019283 -0.002830 0.078852 0.026938 0.051456 0.066353 -0.027355 -0.111628 0.071551 0.033462 -0.016933 0.066186 0.124054 -0.059888 -0.018567 0.031226 0.123888 0.089047 0.060250 0.116152 -0.046112 0.223359 -0.009712 -0.028635 -0.094175 -0.084526 0.118690 -0.077465 0.174478 0.004853 0.127104 -0.004186 -0.115004 0.033635 0.004161 0.046446 0.066292 0.012400 0.092319 -0.038004 0.117014 0.060215 -0.008878 -0.024408 0.037909 0.066091 -0.017066 0.091822 0.001645 0.004588 0.142580 0.071954 -0.022304 -0.014351 -0.059548 -0.108546 0.073589 -0.105871 -0.037556 -0.070211 -0.030240 -0.005698 0.030911 0.127606 0.082098 0.000918 -0.114077 0.196474 -0.004260 0.095025 0.130486 0.060410 0.005316 -0.011010 0.042726 -0.016654 0.034290 0.025556 -0.012236 0.015040 0.000610 0.020197 0.024804 -0.092727 0.024932 0.236860 -0.015685 -0.132745 -0.006256 0.193153 -0.027768 0.003956 -0.089716 -0.038219 -0.010041 -0.088261 -0.085629 0.040658 -0.106789 0.139006 -0.016054 0.124885 -0.043419 -0.093896 0.117743 -0.068516 -0.055894 -0.190168 -0.063628 0.047951 0.034030 0.025351 -0.103570 -0.013588 -0.069421 -0.046737 0.185539 -0.009799 0.018290 -0.064271 -0.221901 -0.180243 0.093902 -0.089632 -0.061838 -0.069326 -0.079115 0.060409 -0.074429 -0.004606 -0.132816 -0.008765 -0.056014 0.037235 -0.051018 0.080235 -0.017751 0.011427 0.099624 -0.002029 0.081566 -0.026052 -0.189962 0.008600 -0.119883 -0.015346 0.022441 0.104798 -0.032322 -0.027558 -0.095941 0.031248 0.126599 0.111639 -0.036441 -0.009772 0.000036 0.062828 -0.026012 -0.104135 0.151137 -0.101723 0.192778 0.095487 0.047138 0.021730 0.093375 0.062403 -0.066005 -0.154049 0.075168 -0.215758 0.055410 
of -0.147791 0.036678 -0.075527 0.079819 0.135975 -0.081287 -0.022608 0.032676 -0.006026 0.166761 0.209166 -0.255699 0.162021 0.034640 0.000257 0.069215 -0.115260 0.073685 0.041809 -0.157928 -0.073324 0.020037 0.060507 -0.000502 0.102043 0.049786 -0.078699 -0.045223 0.009215 0.035042 0.196889 -0.044083 -0.078335 -0.156392 -0.050860 -0.106987 0.113245 -0.098119 -0.128497 0.127709 -0.004133 0.073158 -0.010636 0.035327 0.239718 -0.149260 0.132639 -0.034144 0.136531 -0.157502 -0.065789 -0.109755 -0.197018 -0.018187 -0.022882 -0.104142 0.047692 0.086354 0.017403 -0.170727 -0.099833 -0.043577 0.166501 -0.080866 -0.023488 -0.046880 -0.052827 0.097763 0.016473 -0.060564 -0.110725 0.025958 -0.118812 0.081119 -0.080904 -0.049408 0.120728 0.083809 -0.189519 -0.122156 -0.096431 -0.106197 0.030525 0.076669 0.038201 0.002818 -0.048744 -0.201892 0.007025 0.108269 0.122470 0.131613 -0.036298 -0.062993 -0.029353 -0.128580 0.053890 0.083387 0.261314 0.071924 -0.027447 -0.028185 0.158626 0.109681 -0.151743 0.100866 -0.097255 0.091296 -0.147810 0.106831 -0.157208 0.044435 0.201016 0.056530 -0.037832 0.016748 0.089413 0.056423 0.037386 -0.105887 0.185182 -0.065714 -0.064539 -0.004764 0.058519 -0.143373 -0.052924 -0.108133 0.137834 0.038484 -0.179484 -0.088907 -0.055830 -0.094031 -0.059764 0.129167 -0.003197 0.182954 0.092987 -0.101354 -0.123417 0.039953 -0.014764 0.212487 -0.007975 -0.056808 -0.137821 -0.097731 -0.060905 0.057957 -0.240540 0.000003 -0.002991 -0.165707 0.142409 -0.064823 0.107080 -0.089462 -0.047291 0.005363 0.044968 0.059557 -0.076341 0.103182 -0.098228 0.064613 -0.023160 0.031275 0.192497 -0.127262 0.072824 -0.114134 0.004579 -0.103913 0.100823 -0.069140 -0.046206 0.025595 -0.041900 0.160232 0.195838 -0.148397 -0.001643 0.043988 0.114500 -0.034336 -0.035213 0.125595 -0.067966 -0.035970 0.047307 0.059038 0.105181 0.095663 -0.043938 0.081398 -0.133439 0.045614 -0.019244 0.069999 
and -0.024347 0.053074 -0.040849 0.117061 0.001622 -0.098806 -0.039695 0.093380 -0.009757 -0.013631 0.066237 0.015931 0.109062 -0.063560 -0.051237 -0.109208 -0.065768 0.022915 0.054495 -0.085292 -0.117823 0.076666 -0.033675 0.078199 0.041782 0.099298 -0.031071 -0.144967 0.105079 -0.063673 0.027701 0.033634 0.018107 -0.042353 -0.055346 0.066797 -0.083385 -0.060760 0.029377 0.089263 -0.038241 0.071818 -0.074219 0.103677 0.044154 -0.078676 -0.001987 -0.094626 0.110714 -0.120576 -0.043130 -0.114225 0.022692 0.025714 -0.095998 0.036696 0.081565 0.040812 -0.005871 0.055916 -0.000812 -0.007347 0.088568 -0.071136 -0.008196 0.028728 -0.060805 0.117658 0.015578 0.063318 -0.132403 0.088420 -0.130619 0.063793 -0.011274 -0.012957 -0.050791 0.101169 0.037158 0.090849 -0.011385 -0.054102 0.022710 -0.016741 -0.005508 -0.005679 0.035697 0.026644 -0.057003 0.016564 0.000070 -0.007818 -0.001752 0.000583 -0.039225 -0.071617 0.133211 0.089452 0.147674 0.059772 -0.035704 -0.004160 -0.139228 -0.055441 -0.006982 -0.119352 0.032942 0.041178 -0.051230 0.063314 -0.222080 -0.045393 -0.002936 -0.019174 0.022341 -0.121556 0.060418 -0.042333 -0.021258 -0.025078 0.039726 -0.038238 -0.002729 -0.057728 -0.013447 -0.092768 0.046690 0.028548 -0.022136 -0.013926 -0.109302 -0.082553 -0.143082 -0.057440 -0.109506 -0.037709 0.097019 0.166454 -0.010086 -0.071969 0.047488 0.031891 0.002509 0.117439 -0.107419 -0.125551 0.017469 0.025467 -0.176444 0.051908 -0.093863 -0.023446 -0.118318 0.027605 -0.016188 -0.011580 -0.026597 -0.089863 -0.048288 0.059565 0.122321 0.003674 -0.072755 0.059292 -0.099244 -0.068176 0.026256 0.115541 0.125988 -0.163292 -0.060188 -0.008491 -0.025956 0.003752 0.160077 0.019398 0.015106 -0.078548 -0.013768 0.090765 0.046322 -0.003361 -0.049263 0.116839 0.069929 -0.028855 -0.043361 0.008241 0.008303 -0.098052 -0.058350 0.051018 -0.026388 0.055879 0.019976 0.101695 -0.144411 0.126851 -0.091491 -0.011700 
one -0.063731 -0.019408 -0.094177 0.212182 0.001527 -0.009489 -0.206439 -0.042425 -0.070551 -0.037172 0.023530 -0.122287 -0.093155 -0.038374 -0.019311 0.105519 -0.085274 0.083189 0.018796 -0.063296 0.109842 0.119155 0.163645 -0.016500 0.167518 -0.055683 -0.048144 -0.218459 -0.085139 0.209435 0.059736 0.039171 0.311678 -0.163687 -0.063307 -0.055093 0.113503 -0.171185 -0.198988 -0.060662 0.234128 -0.133237 -0.128185 0.094750 0.063627 0.200584 -0.095054 0.049018 0.082602 -0.158524 -0.058862 0.239674 0.182837 0.053435 -0.137183 -0.085523 0.049889 0.097534 0.212863 0.168141 -0.126356 0.020533 0.012595 0.061851 0.181558 -0.011876 -0.041800 0.269709 -0.264213 0.203172 -0.123379 -0.117645 0.040807 0.071704 0.063679 -0.295791 -0.042151 -0.096249 0.053301 -0.166773 -0.056235 -0.012217 -0.017785 -0.008988 0.047231 0.268874 0.026539 0.109790 -0.054751 -0.132898 -0.056420 -0.160925 0.249072 -0.054264 -0.014017 0.148899 0.077555 0.116978 -0.114684 0.014712 0.037369 0.061183 0.072996 0.071263 0.133758 -0.054306 0.123713 0.168053 -0.012778 -0.073324 -0.010266 0.117609 0.166686 -0.004762 0.034340 -0.074234 0.127407 -0.112561 0.015312 -0.107234 -0.014333 -0.101286 -0.113912 0.061207 -0.303005 0.007551 0.144658 0.036143 -0.032926 0.123757 -0.218606 -0.068108 0.095157 -0.184567 -0.204314 -0.127229 0.095304 0.178320 -0.251863 0.045585 -0.040859 -0.176997 -0.011403 0.122744 0.064273 -0.272396 -0.045334 -0.058329 -0.050279 0.072089 0.222460 -0.010091 -0.007325 -0.117844 0.096937 -0.020055 -0.201836 -0.031679 0.008190 -0.176544 0.075220 0.124922 0.038057 0.107708 -0.009675 0.020916 -0.058934 0.264936 0.068603 -0.126778 -0.060182 -0.070186 0.030615 0.148452 -0.041334 -0.169469 0.038855 -0.044831 0.244858 0.113223 0.188405 -0.071830 0.021033 0.149904 0.032691 -0.126487 -0.027536 0.107501 -0.023142 -0.056955 0.100144 0.065113 0.226229 0.020227 -0.115828 0.081909 -0.167028 0.127116 0.052007 0.257570 
